MTP
version = 1.1.0
potential_name = MTP_l2k3
scaling = 1.798587899092139e-02
L = 2
scaling_map = LK
species_count = 6
potential_tag = 
radial_basis_type = RBChebyshev_sss
	min_dist = 2.000000000000000e+00
	max_dist = 6.500000000000000e+00
	radial_basis_size = 8
	radial_funcs_count = 9
shift_coeffs = {-9.912818824803937e+02, -1.377369893365880e+03, 5.771227457424931e+02, -6.176578682322446e+02, -1.245389956765900e+03, -1.061666637567643e+03}
scal_coeffs = {6.928629072124664e+00, 4.033061815166601e+00, 1.451030651526369e+00, 1.126481252152096e+00, 3.089761809826074e+00, 1.087829049193723e+00, 4.324028360638692e+00, 3.822660473799242e+00, 9.880164229370271e-01, 1.428857044954996e+00, 7.773845191311379e-01, 7.374724323286465e-01, 2.534379078321666e+00, 3.186730866244416e+00, 2.839916413074339e+00, 2.814169755281017e+00, 3.000000000000000e+00, 3.000000000000000e+00, 2.094444475632128e+00, 7.792861634252938e-01, 9.961263669503356e-01, 3.547343786433216e+00, 9.251201402944508e-01, 4.397968384263409e-01, 1.775133024699228e+00, 3.082287308603441e+00, 3.000000000000000e+00, 1.340714026443798e+00, 2.944602838082802e+00, 3.000000000000000e+00, 3.105550357221580e+00, 3.643501586569474e+00, 3.000000000000000e+00, 1.135476030172779e+00, 3.000000000000000e+00, 3.141477551373088e+00, -2.244506978019792e+00, 1.288282907203052e+00, 1.780552452653409e+00, 1.853403219255486e+00, -1.751461627081737e-01, -3.642031587566226e-01, -1.544977888391742e+00, -2.778388758921072e+00, -8.087555292370815e-01, 1.204456602727245e+00, -9.628717277330282e-01, -2.274829197750480e+00, -8.486804079706346e-01, -8.142385163939049e-01, 2.142522440087522e+00, 1.258917850229705e+00, 2.000000000000000e+00, 2.000000000000000e+00, 1.010983179762569e+00, 1.939575788940015e+00, 1.532752654207701e+00, 3.859788466608227e-01, 1.377664349555949e+00, 1.121404344935378e+00, 1.215316946399287e+00, 1.451904757247592e+00, 2.000000000000000e+00, 1.237404864862238e+00, 2.050325711224922e+00, 2.000000000000000e+00, 2.411653798696488e-01, -1.396530458584782e-01, 2.000000000000000e+00, 1.540087912158612e+00, 2.000000000000000e+00, 1.737671126628500e+00, 1.915805003059178e+00, 1.816271833081157e+00, 3.776740685780509e+00, 2.398947593653652e+00, 2.876214331629409e+00, 3.958542633243408e+00, 3.756140882348150e+00, 3.280243996631518e+00, 3.054207304798597e+00, 2.364651648348824e+00, 2.464133545014293e+00, 3.280958897737157e+00, 3.110484748755606e+00, 1.926410024713190e+00, 3.003630833219167e+00, 1.348400098678666e+00, 3.000000000000000e+00, 3.000000000000000e+00, 3.689777395117152e+00, 3.579389748162461e+00, 4.496806173144652e-01, 3.493182191287633e+00, 1.910891986915044e+00, 4.142950397485828e-01, 3.199513902981142e+00, 2.631325283118139e+00, 3.000000000000000e+00, 2.655900382850777e+00, 3.000955895046454e+00, 3.000000000000000e+00, 3.655573992881024e+00, 2.255209432199480e+00, 3.000000000000000e+00, 3.503474311087032e+00, 3.000000000000000e+00, 2.984967370353174e+00, 2.123232106443735e+00, 2.987324616455787e+00, 6.638109222792073e-01, 2.290658657176049e+00, 1.962458177333792e+00, 2.548359349201704e+00, 2.417997290999892e+00, 1.972259166794075e+00, 4.176527450354457e+00, 2.501395182724373e+00, 2.016701955170455e+00, 1.894312022163188e+00, 1.080642146118444e+00, 1.353664343870651e+00, 1.996847357847270e+00, 3.540921962877792e+00, 2.000000000000000e+00, 2.000000000000000e+00, -1.086610889242513e+00, 1.701021396983905e+00, 8.255395533830415e+00, 3.065267125431384e+00, 7.503681948237948e-01, 4.848986460598542e+00, 1.481510367358852e+00, 3.114668472679211e+00, 2.000000000000000e+00, 4.219730579032633e+00, 1.999142878088198e+00, 2.000000000000000e+00, 1.795204896654158e+00, 3.715889694944321e+00, 2.000000000000000e+00, -2.720507866534151e+00, 2.000000000000000e+00, 2.025717710413719e+00, 4.698151974845724e+00, 6.966504878402572e-01, 2.674063360269006e+00, 2.332512547283485e+00, 2.626010290200917e+00, 4.549408045272874e+00, 3.297462155082022e+00, 4.255394229877707e+00, 5.124201490365669e-01, 6.997986209961378e-01, 1.906609973641510e+00, 3.882241364270018e+00, 3.886129263729508e+00, 3.786276302503630e+00, 3.046833970570178e+00, 1.724025727661335e+00, 3.000000000000000e+00, 3.000000000000000e+00, 1.743271984612689e+00, 7.862271558195968e-01, 1.236623343334475e+00, 4.240593620768632e+00, 1.120212222789957e+00, 1.683940661454761e+00, 3.448208997174945e+00, 3.224901173248973e+00, 3.000000000000000e+00, 2.912134920305605e+00, 3.031703897561525e+00, 3.000000000000000e+00, 3.703179842750985e+00, 1.240900828361666e+00, 3.000000000000000e+00, 2.335297052909186e+00, 3.000000000000000e+00, 2.934119421570062e+00, 1.123221629567942e+00, -3.123518670481016e+00, 1.397573152089007e+00, 6.586022293360733e-01, 1.202045441196581e-01, 8.712891359410516e-01, 1.222963048168111e+00, -1.988215611454295e+00, -9.131027006745508e-01, -6.285867897595725e-01, 6.200145108386608e-01, -7.373759396766019e-01, 1.270730971899438e+00, 1.571010766332366e-01, 1.957827092843119e+00, 2.291432050322479e+00, 2.000000000000000e+00, 2.000000000000000e+00, -1.038346811135014e+00, 2.588845248347242e+00, 2.544265256978482e+00, 1.351026317561760e+00, 2.526631591856354e+00, 2.616619911695756e+00, 4.518560310480738e-01, 1.681154981562870e+00, 2.000000000000000e+00, 2.164916655709896e+00, 1.971179667419419e+00, 2.000000000000000e+00, 7.075429937138247e-01, 1.198032668965344e+00, 2.000000000000000e+00, 2.229156612305228e+00, 2.000000000000000e+00, 2.197051923440279e+00, 1.592522367138567e+00, 3.120422800991793e+00, 1.267478941771925e+00, 1.247775387633237e+00, 2.293792845526198e+00, 3.590308361889735e+00, 1.952995438746813e+00, 2.092931703536420e+00, 2.103861158844593e+00, 6.203709366779243e-01, 3.646090023765567e+00, 4.348568684507929e+00, 2.071445927225381e+00, 2.684172711788751e+00, 3.096456683041707e+00, 6.777344648874707e-01, 3.000000000000000e+00, 3.000000000000000e+00, 4.402462691468759e-01, 1.034098152880873e+00, 7.536938697872776e-01, 2.689261790410028e+00, 7.446119135883961e-01, 6.011649191914644e-01, 2.913465749823271e+00, 9.409023736455714e-01, 3.000000000000000e+00, 8.057230164985867e-01, 3.043373857057355e+00, 3.000000000000000e+00, 2.222958632460249e+00, 1.218888551566630e+00, 3.000000000000000e+00, 3.671528643014677e-01, 3.000000000000000e+00, 2.920596544808979e+00, 4.056503465020495e-01, 1.671887891694541e+00, 1.314771062422395e+00, 1.415633320158108e+00, 1.681964577054488e-01, -1.917470393389754e-01, -4.944401207540882e-01, 5.626935412629230e-01, 1.216540881725297e+00, 6.568989431224990e-01, 1.215470643924317e+00, 1.563289570104808e+00, 3.787389560931381e-01, 1.397577638201937e+00, 1.913568172605430e+00, -3.438010428721457e-01, 2.000000000000000e+00, 2.000000000000000e+00, -5.997555620490388e-01, 2.587534809983038e+00, 2.267223938918610e+00, 1.507464164934106e+00, 2.240218615649305e+00, 2.559059014320240e+00, 2.043889814781963e+00, 1.834098314209616e+00, 2.000000000000000e+00, 4.526576248762600e-01, 1.960568780052872e+00, 2.000000000000000e+00, 1.839870962768274e+00, 7.262652352133173e-01, 2.000000000000000e+00, -1.073736000208495e+00, 2.000000000000000e+00, 2.169324415001368e+00, 5.013406806224331e-01, 6.204895869715332e-01, 1.057858304067760e-01, 6.119280939239250e-01, 4.755068876054354e-01, 1.546114851703106e-01, 3.570072728575103e+00, 5.087789450352181e-01, 3.305721123487184e+00, 1.036250789142419e-02, 3.310630368364653e+00, 3.471981392243088e+00, 3.500549175275887e+00, 3.339339687785567e+00, 3.001201700188798e+00, 6.150062723763313e+00, 3.000000000000000e+00, 3.000000000000000e+00, 5.163150255175845e+00, 1.777211238001420e+00, 2.638528427272682e+00, 7.791869805307874e-01, 2.385884569157274e+00, 1.524225212887863e-01, 3.424722275398159e+00, 3.449905785014955e+00, 3.000000000000000e+00, 1.307661911177632e+00, 2.996447720995802e+00, 3.000000000000000e+00, 4.132819650794238e+00, 1.699409804393476e-01, 3.000000000000000e+00, 8.781225211148728e+00, 3.000000000000000e+00, 2.983040295461731e+00, 1.125113679771540e+00, 1.635811606814050e+00, -6.617110849481975e-01, 1.215488039906682e+00, 1.103610410820843e+00, -8.032740980962000e-01, 1.662613771052361e+00, 7.310980029662288e-01, 9.844871744582709e-01, -4.498719209951985e+00, 1.256172307748082e+00, 2.097318169907703e+00, 5.142939951793135e-01, 5.440467690259947e-01, 1.998960770950551e+00, 3.457388731472559e+00, 2.000000000000000e+00, 2.000000000000000e+00, -1.313422589750062e+00, 3.280162579217318e+00, 2.822910392371877e+00, 2.142945375501935e+00, 3.056605228434152e+00, 5.456519986110698e+00, 4.516894917607563e-01, 5.511707341190690e-01, 2.000000000000000e+00, 3.132073858179020e+00, 2.003133974574407e+00, 2.000000000000000e+00, -5.393861151894087e-03, 2.047577438471917e+00, 2.000000000000000e+00, 3.713421812185466e+00, 2.000000000000000e+00, 2.031850777557895e+00, 2.192618719926323e+00, 2.752131033157375e+00, -1.002213618898935e-02, 1.164181597706522e+00, 1.514362512896383e-01, 6.593148434491445e-01, 6.417468396438781e-01, 9.588858712520092e-01, 4.052732449828652e+00, 8.731696150187923e-01, 1.995950888359554e+00, 8.870508825775535e-01, 1.210995402141124e+00, 2.375480105401069e+00, 3.056285674217493e+00, 1.425693636022542e+00, 3.000000000000000e+00, 3.000000000000000e+00, 5.572661369373740e-01, 1.190206150956600e+00, 1.048445324644767e+00, 1.157082738045342e+00, 9.530673089299527e-01, 1.002063277950270e+00, 8.795379950241896e-01, 2.071662845633991e+00, 3.000000000000000e+00, 1.904332002917001e+00, 3.040575177842669e+00, 3.000000000000000e+00, 2.756687394454399e-01, 3.330191996109941e+00, 3.000000000000000e+00, 2.491612932818026e+00, 3.000000000000000e+00, 2.873166017939736e+00, 1.650587680364189e+00, 2.045921849603531e+00, 1.244380979771810e-02, 1.647413023401515e+00, 1.424824047833682e+00, 1.457040692939396e+00, -3.248994224780727e+00, 5.236129031112087e-02, -2.457945077033019e-01, -5.507164978933413e-01, 1.192063873714384e+00, -2.436654087288427e-01, 2.232806247412969e-01, 1.521779998407657e+00, 1.949143045725323e+00, 1.631491773026865e+00, 2.000000000000000e+00, 2.000000000000000e+00, -2.556838975153511e-01, 9.164318474378546e-01, 1.582807809727039e+00, 4.275407002149900e-01, 1.306867035513165e+00, 2.013827695104280e+00, -2.970874451719238e-01, 2.279940762089312e+00, 2.000000000000000e+00, 1.924078223198472e+00, 1.963082980481493e+00, 2.000000000000000e+00, -6.008745836056649e+00, 2.038131039469128e+00, 2.000000000000000e+00, 1.945955218124471e+00, 2.000000000000000e+00, 2.367727443701881e+00, 4.279272633408255e+00, 4.182970029147122e+00, 3.743354222012523e+00, 6.104206241558295e-01, 3.331162013507916e+00, 3.902488168742139e+00, 4.174502264634118e+00, 8.150874867446309e-01, 2.658518053591064e+00, 8.112824950838339e-01, 3.616405994404666e+00, 3.917644790489212e+00, 4.161706659813999e+00, 3.186793447338619e+00, 2.869257168022896e+00, 9.129893893661927e-01, 3.000000000000000e+00, 3.000000000000000e+00, 3.527170645171847e-01, 6.810214792272936e-01, 6.466297366455164e-01, 3.754902458692834e+00, 5.771236148846119e-01, 7.322172516576412e-01, 3.632699847622544e+00, 3.448359665805394e+00, 3.000000000000000e+00, 1.542126109808592e+00, 2.934919457726966e+00, 3.000000000000000e+00, 3.325810617994628e+00, 3.549562566475603e+00, 3.000000000000000e+00, 1.323717849720715e+00, 3.000000000000000e+00, 3.216972025765001e+00, -1.447269602818519e+00, -2.573390581422050e+00, -3.989596975149023e-01, 3.431756664145217e+00, 1.288845805458158e+00, 6.778215822737048e-02, -1.223946862696691e+00, -2.187406368445246e+00, 1.612036018421106e+00, 1.725603198033728e+00, 6.885299251397750e-01, -6.893172893495125e-01, -6.606331811609005e-01, 8.188993907033486e-01, 2.116827701125177e+00, 2.517135319939897e+00, 2.000000000000000e+00, 2.000000000000000e+00, -2.211305979665100e+00, 2.634267004472328e+00, 2.741859207930290e+00, 1.989207598457093e+00, 2.820070344563307e+00, 2.978040300981178e+00, 7.319437144924261e-01, 8.241089457107217e-01, 2.000000000000000e+00, 2.297683489291563e+00, 2.058958790893253e+00, 2.000000000000000e+00, 3.808798799780854e-01, 3.661436659639985e-01, 2.000000000000000e+00, 2.399171739688150e+00, 2.000000000000000e+00, 1.587061260007029e+00, 5.922006720122321e-01, 3.487465236763513e+00, 3.559908224139730e+00, 1.422349637685868e+00, 3.539592698637899e+00, 3.747913597694041e+00, 3.911209849774790e+00, 3.859834647669455e+00, 3.903497452500845e+00, 1.541907814797989e+00, 3.376336164051516e+00, 2.916141700244638e+00, 3.327406182966330e+00, 3.872513343353917e+00, 2.996874747665164e+00, 1.513987041994245e+00, 3.000000000000000e+00, 3.000000000000000e+00, 4.951688675871677e-01, 1.081907960348637e+00, 3.312961627187873e+00, 3.091963286782264e+00, 1.437217295418168e+00, 3.033813127452790e+00, 2.228032701438599e+00, 3.423300913737477e+00, 3.000000000000000e+00, 2.423279386481034e+00, 2.996013455502724e+00, 3.000000000000000e+00, 3.407422697352475e+00, 3.462154159737990e+00, 3.000000000000000e+00, 2.140587439858205e+00, 3.000000000000000e+00, 3.050007984567325e+00, -3.232435151675013e+00, 1.873199903889131e+00, 7.407018961862667e-01, 4.003953932002624e+00, 8.930863129545242e-01, 4.284361432643861e-01, -6.540649538712241e-01, -4.039723790536506e-01, -2.308530528059040e-01, 2.692140385155668e+00, 4.552158601679368e-01, 2.995180258692071e-01, -1.696320784484229e-01, 3.227750627612956e-01, 2.002659134522528e+00, 3.175725466833086e+00, 2.000000000000000e+00, 2.000000000000000e+00, -1.221200621260634e+00, 5.500733815094468e-01, -4.786328529494314e+00, 3.011071582772592e+00, -3.731988015031982e-01, 1.816253179192741e+00, 1.835963828547893e+00, 6.425382915503581e-01, 2.000000000000000e+00, 3.465392620886932e+00, 2.003543007652907e+00, 2.000000000000000e+00, 1.015911124332535e+00, 4.690120688850338e-01, 2.000000000000000e+00, 3.459186600537197e+00, 2.000000000000000e+00, 1.920140703382866e+00, 1.364314954557050e+00, 1.059622797764945e+00, 4.742192934498667e-01, 1.822659035142045e+00, 1.530342380226751e+00, 1.325917479323344e+00, 1.570439769280107e+00, 1.755381824768541e+00, 1.542315881760608e+00, 6.173794766061538e-01, 3.308418114920167e+00, 2.033755107809415e+00, 1.365687402590738e+00, 1.953236384281972e+00, 2.948818255225674e+00, 1.150996303090415e+00, 3.000000000000000e+00, 3.000000000000000e+00, 2.835422545605586e+00, 5.642305239252030e-01, 1.022786775735069e+00, 1.100372057631873e+00, 8.517746613999498e-01, 1.010309464459915e+00, 2.856841602989263e+00, 2.279064524672402e+00, 3.000000000000000e+00, 1.759200365306481e+00, 2.987363850293779e+00, 3.000000000000000e+00, 9.121321130741684e-01, 2.263051173897254e+00, 3.000000000000000e+00, 1.167206893452309e+00, 3.000000000000000e+00, 3.071459529593783e+00, 1.305431806829661e+00, 1.017180987897360e+00, -1.350369255689273e+00, 6.691259075089677e-01, 1.723074572043779e+00, 1.685368093154678e+00, 1.059439239803661e+00, 1.267632340353418e+00, 1.375055953965111e+00, 4.503386240656894e-01, 1.595473235523020e+00, 1.479439332778461e+00, 4.271413483300119e-01, 1.038845313183794e+00, 2.046496844331243e+00, 1.936625030989387e+00, 2.000000000000000e+00, 2.000000000000000e+00, 1.031737485120691e+00, 2.745149450122084e+00, 2.637589519590239e+00, 1.164070207633630e+00, 2.798323835098651e+00, 2.560892214758979e+00, 1.540837574745415e+00, 1.539647929504919e+00, 2.000000000000000e+00, 1.728992600139705e+00, 2.011507532419362e+00, 2.000000000000000e+00, -3.011215717192491e-01, 3.247949213504872e-01, 2.000000000000000e+00, 1.635790833566975e+00, 2.000000000000000e+00, 1.858418663007455e+00}
	radial_coeffs
		0-0
			{2.971246129889086e+00, -2.730349930868039e+00, -1.131546052831317e+00, 4.785760807794079e+00, -4.376272307190572e+00, 2.442953006959644e+00, -7.870320163626209e-01, 1.452974543127521e-01, 3.561063907374495e-01, 3.060633587598517e-01, 4.363741826496225e-01, 6.492467292369856e-01, 4.295071692360561e-01, 4.660879769781345e-01}
			{2.077599312818330e-01, -8.757425809134196e-03, -1.365282530284744e-01, -6.129727768534745e-03, 1.431269529246638e-02, -8.136208710496032e-02, 3.378378043687798e-02, -2.689456244333268e-02, 1.000000000000000e+00, 1.000000000000000e+00, 1.000000000000000e+00, 1.000000000000000e+00, 1.000000000000000e+00, 1.000000000000000e+00}
			{-5.452340104969627e-01, -2.934425170927572e+00, 2.028028747951786e+00, -3.609135539167573e-01, 4.086366748118885e-02, 2.451912333392714e-01, -6.659514984645258e-02, 7.433396698949833e-02, 1.000000000000000e+00, 1.000000000000000e+00, 1.000000000000000e+00, 1.000000000000000e+00, 1.000000000000000e+00, 1.000000000000000e+00}
			{9.168099170673235e-01, -2.252018610711562e+00, -2.445008209779496e+00, -4.554551528936395e-01, 1.039738587761277e+00, -9.320144479109013e-01, 3.752087209986938e-01, -1.715197094937612e-01, 1.000000000000000e+00, 1.000000000000000e+00, 1.000000000000000e+00, 1.000000000000000e+00, 1.000000000000000e+00, 1.000000000000000e+00}
			{7.996078798474361e-01, -1.558648300347734e+00, 3.102662339164925e-02, 1.759695187994605e+00, -4.575570342387622e-01, -2.064673854859185e-01, -1.856702667170691e-01, 4.466572653133686e-01, 1.000000000000000e+00, 1.000000000000000e+00, 1.000000000000000e+00, 1.000000000000000e+00, 1.000000000000000e+00, 1.000000000000000e+00}
			{-1.974429089009541e+00, 4.366854043144986e+00, 3.245030291424987e-01, -2.846063936632804e+00, 3.382632949307848e+00, -1.889780336170618e+00, 8.202701369228018e-01, -1.079801602752502e-01, 1.000000000000000e+00, 1.000000000000000e+00, 1.000000000000000e+00, 1.000000000000000e+00, 1.000000000000000e+00, 1.000000000000000e+00}
			{1.983871887094413e+00, 1.560959943858582e+00, -4.924520158719041e+00, -1.371988007428332e+00, 3.671412640227762e+00, -3.484540467884513e+00, 1.630926568314668e+00, -4.546786863494506e-01, 1.000000000000000e+00, 1.000000000000000e+00, 1.000000000000000e+00, 1.000000000000000e+00, 1.000000000000000e+00, 1.000000000000000e+00}
			{2.858261316566345e+00, -2.983650748200582e+00, 1.203484765850544e-01, -2.903808055149205e-01, -5.947705686793415e-02, -2.263249595857682e-01, 6.866525606871456e-02, -1.013424114076271e-01, 1.000000000000000e+00, 1.000000000000000e+00, 1.000000000000000e+00, 1.000000000000000e+00, 1.000000000000000e+00, 1.000000000000000e+00}
			{2.322515673216033e-01, 1.176188513317530e+00, -6.821448163410669e-01, -1.461385279889611e-02, -5.824812174870071e-01, 4.372390771499655e-01, -2.565300791914092e-01, 1.398730282197309e-01, 1.000000000000000e+00, 1.000000000000000e+00, 1.000000000000000e+00, 1.000000000000000e+00, 1.000000000000000e+00, 1.000000000000000e+00}
alpha_moments_count = 238
alpha_index_basic_count = 30
alpha_index_basic = {{0, 0, 0, 0}, {1, 1, 0, 0}, {1, 0, 1, 0}, {1, 0, 0, 1}, {2, 2, 0, 0}, {2, 1, 1, 0}, {2, 1, 0, 1}, {2, 0, 2, 0}, {2, 0, 1, 1}, {2, 0, 0, 2}, {3, 0, 0, 0}, {4, 1, 0, 0}, {4, 0, 1, 0}, {4, 0, 0, 1}, {5, 2, 0, 0}, {5, 1, 1, 0}, {5, 1, 0, 1}, {5, 0, 2, 0}, {5, 0, 1, 1}, {5, 0, 0, 2}, {6, 0, 0, 0}, {7, 1, 0, 0}, {7, 0, 1, 0}, {7, 0, 0, 1}, {8, 2, 0, 0}, {8, 1, 1, 0}, {8, 1, 0, 1}, {8, 0, 2, 0}, {8, 0, 1, 1}, {8, 0, 0, 2}}
alpha_index_times_count = 436
alpha_index_times = {{0, 0, 1, 30}, {0, 30, 1, 31}, {10, 30, 1, 32}, {20, 30, 1, 33}, {0, 10, 1, 34}, {10, 34, 1, 35}, {20, 34, 1, 36}, {0, 20, 1, 37}, {20, 37, 1, 38}, {10, 10, 1, 39}, {10, 39, 1, 40}, {20, 39, 1, 41}, {10, 20, 1, 42}, {20, 42, 1, 43}, {20, 20, 1, 44}, {20, 44, 1, 45}, {1, 1, 1, 46}, {2, 2, 1, 46}, {3, 3, 1, 46}, {1, 11, 1, 47}, {2, 12, 1, 47}, {3, 13, 1, 47}, {1, 21, 1, 48}, {2, 22, 1, 48}, {3, 23, 1, 48}, {11, 11, 1, 49}, {12, 12, 1, 49}, {13, 13, 1, 49}, {11, 21, 1, 50}, {12, 22, 1, 50}, {13, 23, 1, 50}, {21, 21, 1, 51}, {22, 22, 1, 51}, {23, 23, 1, 51}, {4, 4, 1, 52}, {5, 5, 2, 52}, {6, 6, 2, 52}, {7, 7, 1, 52}, {8, 8, 2, 52}, {9, 9, 1, 52}, {4, 14, 1, 53}, {5, 15, 2, 53}, {6, 16, 2, 53}, {7, 17, 1, 53}, {8, 18, 2, 53}, {9, 19, 1, 53}, {4, 24, 1, 54}, {5, 25, 2, 54}, {6, 26, 2, 54}, {7, 27, 1, 54}, {8, 28, 2, 54}, {9, 29, 1, 54}, {14, 14, 1, 55}, {15, 15, 2, 55}, {16, 16, 2, 55}, {17, 17, 1, 55}, {18, 18, 2, 55}, {19, 19, 1, 55}, {14, 24, 1, 56}, {15, 25, 2, 56}, {16, 26, 2, 56}, {17, 27, 1, 56}, {18, 28, 2, 56}, {19, 29, 1, 56}, {24, 24, 1, 57}, {25, 25, 2, 57}, {26, 26, 2, 57}, {27, 27, 1, 57}, {28, 28, 2, 57}, {29, 29, 1, 57}, {0, 46, 1, 58}, {0, 47, 1, 59}, {0, 48, 1, 60}, {0, 49, 1, 61}, {0, 50, 1, 62}, {0, 51, 1, 63}, {10, 46, 1, 64}, {10, 47, 1, 65}, {10, 48, 1, 66}, {10, 49, 1, 67}, {10, 50, 1, 68}, {10, 51, 1, 69}, {20, 46, 1, 70}, {20, 47, 1, 71}, {20, 48, 1, 72}, {20, 49, 1, 73}, {20, 50, 1, 74}, {20, 51, 1, 75}, {0, 52, 1, 76}, {0, 53, 1, 77}, {0, 54, 1, 78}, {0, 55, 1, 79}, {0, 56, 1, 80}, {0, 57, 1, 81}, {10, 52, 1, 82}, {10, 53, 1, 83}, {10, 54, 1, 84}, {10, 55, 1, 85}, {10, 56, 1, 86}, {10, 57, 1, 87}, {20, 52, 1, 88}, {20, 53, 1, 89}, {20, 54, 1, 90}, {20, 55, 1, 91}, {20, 56, 1, 92}, {20, 57, 1, 93}, {46, 46, 1, 94}, {46, 47, 1, 95}, {46, 48, 1, 96}, {46, 49, 1, 97}, {46, 50, 1, 98}, {46, 51, 1, 99}, {47, 47, 1, 100}, {47, 48, 1, 101}, {47, 49, 1, 102}, {47, 50, 1, 103}, {47, 51, 1, 104}, {48, 48, 1, 105}, {48, 49, 1, 106}, {48, 50, 1, 107}, {48, 51, 1, 108}, {49, 49, 1, 109}, {49, 50, 1, 110}, {49, 51, 1, 111}, {50, 50, 1, 112}, {50, 51, 1, 113}, {51, 51, 1, 114}, {46, 52, 1, 115}, {46, 53, 1, 116}, {46, 54, 1, 117}, {46, 55, 1, 118}, {46, 56, 1, 119}, {46, 57, 1, 120}, {47, 52, 1, 121}, {47, 53, 1, 122}, {47, 54, 1, 123}, {47, 55, 1, 124}, {47, 56, 1, 125}, {47, 57, 1, 126}, {48, 52, 1, 127}, {48, 53, 1, 128}, {48, 54, 1, 129}, {48, 55, 1, 130}, {48, 56, 1, 131}, {48, 57, 1, 132}, {49, 52, 1, 133}, {49, 53, 1, 134}, {49, 54, 1, 135}, {49, 55, 1, 136}, {49, 56, 1, 137}, {49, 57, 1, 138}, {50, 52, 1, 139}, {50, 53, 1, 140}, {50, 54, 1, 141}, {50, 55, 1, 142}, {50, 56, 1, 143}, {50, 57, 1, 144}, {51, 52, 1, 145}, {51, 53, 1, 146}, {51, 54, 1, 147}, {51, 55, 1, 148}, {51, 56, 1, 149}, {51, 57, 1, 150}, {52, 52, 1, 151}, {52, 53, 1, 152}, {52, 54, 1, 153}, {52, 55, 1, 154}, {52, 56, 1, 155}, {52, 57, 1, 156}, {53, 53, 1, 157}, {53, 54, 1, 158}, {53, 55, 1, 159}, {53, 56, 1, 160}, {53, 57, 1, 161}, {54, 54, 1, 162}, {54, 55, 1, 163}, {54, 56, 1, 164}, {54, 57, 1, 165}, {55, 55, 1, 166}, {55, 56, 1, 167}, {55, 57, 1, 168}, {56, 56, 1, 169}, {56, 57, 1, 170}, {57, 57, 1, 171}, {1, 1, 1, 172}, {1, 2, 1, 173}, {1, 3, 1, 174}, {2, 2, 1, 175}, {2, 3, 1, 176}, {3, 3, 1, 177}, {4, 172, 1, 178}, {5, 173, 2, 178}, {6, 174, 2, 178}, {7, 175, 1, 178}, {8, 176, 2, 178}, {9, 177, 1, 178}, {14, 172, 1, 179}, {15, 173, 2, 179}, {16, 174, 2, 179}, {17, 175, 1, 179}, {18, 176, 2, 179}, {19, 177, 1, 179}, {24, 172, 1, 180}, {25, 173, 2, 180}, {26, 174, 2, 180}, {27, 175, 1, 180}, {28, 176, 2, 180}, {29, 177, 1, 180}, {11, 11, 1, 181}, {11, 12, 1, 182}, {11, 13, 1, 183}, {12, 12, 1, 184}, {12, 13, 1, 185}, {13, 13, 1, 186}, {4, 181, 1, 187}, {5, 182, 2, 187}, {6, 183, 2, 187}, {7, 184, 1, 187}, {8, 185, 2, 187}, {9, 186, 1, 187}, {14, 181, 1, 188}, {15, 182, 2, 188}, {16, 183, 2, 188}, {17, 184, 1, 188}, {18, 185, 2, 188}, {19, 186, 1, 188}, {24, 181, 1, 189}, {25, 182, 2, 189}, {26, 183, 2, 189}, {27, 184, 1, 189}, {28, 185, 2, 189}, {29, 186, 1, 189}, {21, 21, 1, 190}, {21, 22, 1, 191}, {21, 23, 1, 192}, {22, 22, 1, 193}, {22, 23, 1, 194}, {23, 23, 1, 195}, {4, 190, 1, 196}, {5, 191, 2, 196}, {6, 192, 2, 196}, {7, 193, 1, 196}, {8, 194, 2, 196}, {9, 195, 1, 196}, {14, 190, 1, 197}, {15, 191, 2, 197}, {16, 192, 2, 197}, {17, 193, 1, 197}, {18, 194, 2, 197}, {19, 195, 1, 197}, {24, 190, 1, 198}, {25, 191, 2, 198}, {26, 192, 2, 198}, {27, 193, 1, 198}, {28, 194, 2, 198}, {29, 195, 1, 198}, {172, 172, 1, 199}, {173, 173, 2, 199}, {174, 174, 2, 199}, {175, 175, 1, 199}, {176, 176, 2, 199}, {177, 177, 1, 199}, {172, 181, 1, 200}, {173, 182, 2, 200}, {174, 183, 2, 200}, {175, 184, 1, 200}, {176, 185, 2, 200}, {177, 186, 1, 200}, {172, 190, 1, 201}, {173, 191, 2, 201}, {174, 192, 2, 201}, {175, 193, 1, 201}, {176, 194, 2, 201}, {177, 195, 1, 201}, {181, 181, 1, 202}, {182, 182, 2, 202}, {183, 183, 2, 202}, {184, 184, 1, 202}, {185, 185, 2, 202}, {186, 186, 1, 202}, {181, 190, 1, 203}, {182, 191, 2, 203}, {183, 192, 2, 203}, {184, 193, 1, 203}, {185, 194, 2, 203}, {186, 195, 1, 203}, {190, 190, 1, 204}, {191, 191, 2, 204}, {192, 192, 2, 204}, {193, 193, 1, 204}, {194, 194, 2, 204}, {195, 195, 1, 204}, {4, 4, 1, 205}, {5, 5, 1, 205}, {6, 6, 1, 205}, {4, 5, 1, 206}, {5, 7, 1, 206}, {6, 8, 1, 206}, {4, 6, 1, 207}, {5, 8, 1, 207}, {6, 9, 1, 207}, {5, 5, 1, 208}, {7, 7, 1, 208}, {8, 8, 1, 208}, {5, 6, 1, 209}, {7, 8, 1, 209}, {8, 9, 1, 209}, {6, 6, 1, 210}, {8, 8, 1, 210}, {9, 9, 1, 210}, {4, 205, 1, 211}, {5, 206, 2, 211}, {6, 207, 2, 211}, {7, 208, 1, 211}, {8, 209, 2, 211}, {9, 210, 1, 211}, {14, 205, 1, 212}, {15, 206, 2, 212}, {16, 207, 2, 212}, {17, 208, 1, 212}, {18, 209, 2, 212}, {19, 210, 1, 212}, {24, 205, 1, 213}, {25, 206, 2, 213}, {26, 207, 2, 213}, {27, 208, 1, 213}, {28, 209, 2, 213}, {29, 210, 1, 213}, {14, 14, 1, 214}, {15, 15, 1, 214}, {16, 16, 1, 214}, {14, 15, 1, 215}, {15, 17, 1, 215}, {16, 18, 1, 215}, {14, 16, 1, 216}, {15, 18, 1, 216}, {16, 19, 1, 216}, {15, 15, 1, 217}, {17, 17, 1, 217}, {18, 18, 1, 217}, {15, 16, 1, 218}, {17, 18, 1, 218}, {18, 19, 1, 218}, {16, 16, 1, 219}, {18, 18, 1, 219}, {19, 19, 1, 219}, {4, 214, 1, 220}, {5, 215, 2, 220}, {6, 216, 2, 220}, {7, 217, 1, 220}, {8, 218, 2, 220}, {9, 219, 1, 220}, {14, 214, 1, 221}, {15, 215, 2, 221}, {16, 216, 2, 221}, {17, 217, 1, 221}, {18, 218, 2, 221}, {19, 219, 1, 221}, {24, 214, 1, 222}, {25, 215, 2, 222}, {26, 216, 2, 222}, {27, 217, 1, 222}, {28, 218, 2, 222}, {29, 219, 1, 222}, {24, 24, 1, 223}, {25, 25, 1, 223}, {26, 26, 1, 223}, {24, 25, 1, 224}, {25, 27, 1, 224}, {26, 28, 1, 224}, {24, 26, 1, 225}, {25, 28, 1, 225}, {26, 29, 1, 225}, {25, 25, 1, 226}, {27, 27, 1, 226}, {28, 28, 1, 226}, {25, 26, 1, 227}, {27, 28, 1, 227}, {28, 29, 1, 227}, {26, 26, 1, 228}, {28, 28, 1, 228}, {29, 29, 1, 228}, {4, 223, 1, 229}, {5, 224, 2, 229}, {6, 225, 2, 229}, {7, 226, 1, 229}, {8, 227, 2, 229}, {9, 228, 1, 229}, {14, 223, 1, 230}, {15, 224, 2, 230}, {16, 225, 2, 230}, {17, 226, 1, 230}, {18, 227, 2, 230}, {19, 228, 1, 230}, {24, 223, 1, 231}, {25, 224, 2, 231}, {26, 225, 2, 231}, {27, 226, 1, 231}, {28, 227, 2, 231}, {29, 228, 1, 231}, {205, 205, 1, 232}, {206, 206, 2, 232}, {207, 207, 2, 232}, {208, 208, 1, 232}, {209, 209, 2, 232}, {210, 210, 1, 232}, {205, 214, 1, 233}, {206, 215, 2, 233}, {207, 216, 2, 233}, {208, 217, 1, 233}, {209, 218, 2, 233}, {210, 219, 1, 233}, {205, 223, 1, 234}, {206, 224, 2, 234}, {207, 225, 2, 234}, {208, 226, 1, 234}, {209, 227, 2, 234}, {210, 228, 1, 234}, {214, 214, 1, 235}, {215, 215, 2, 235}, {216, 216, 2, 235}, {217, 217, 1, 235}, {218, 218, 2, 235}, {219, 219, 1, 235}, {214, 223, 1, 236}, {215, 224, 2, 236}, {216, 225, 2, 236}, {217, 226, 1, 236}, {218, 227, 2, 236}, {219, 228, 1, 236}, {223, 223, 1, 237}, {224, 224, 2, 237}, {225, 225, 2, 237}, {226, 226, 1, 237}, {227, 227, 2, 237}, {228, 228, 1, 237}}
alpha_scalar_moments = 175
alpha_moment_mapping = {0, 10, 20, 30, 31, 32, 33, 34, 35, 36, 37, 38, 39, 40, 41, 42, 43, 44, 45, 46, 47, 48, 49, 50, 51, 52, 53, 54, 55, 56, 57, 58, 59, 60, 61, 62, 63, 64, 65, 66, 67, 68, 69, 70, 71, 72, 73, 74, 75, 76, 77, 78, 79, 80, 81, 82, 83, 84, 85, 86, 87, 88, 89, 90, 91, 92, 93, 94, 95, 96, 97, 98, 99, 100, 101, 102, 103, 104, 105, 106, 107, 108, 109, 110, 111, 112, 113, 114, 115, 116, 117, 118, 119, 120, 121, 122, 123, 124, 125, 126, 127, 128, 129, 130, 131, 132, 133, 134, 135, 136, 137, 138, 139, 140, 141, 142, 143, 144, 145, 146, 147, 148, 149, 150, 151, 152, 153, 154, 155, 156, 157, 158, 159, 160, 161, 162, 163, 164, 165, 166, 167, 168, 169, 170, 171, 178, 179, 180, 187, 188, 189, 196, 197, 198, 199, 200, 201, 202, 203, 204, 211, 212, 213, 220, 221, 222, 229, 230, 231, 232, 233, 234, 235, 236, 237}
species_coeffs = {1.645539395374745e+00, 7.721691744345160e+00, 3.350988141388771e+00, 3.365895160851518e+00, 1.586155709529725e+00, 1.605727469892990e+00}
moment_coeffs = {1.340296964931267e+01, 4.751912614022684e+00, -3.350959202604410e+00, 8.856919357138036e+00, -8.365969339020806e-01, -1.413725289275882e-01, -1.220805898801795e+00, 7.967420114849710e+00, 1.911834073401128e-01, -1.604384120793243e+00, 1.240632676441750e+00, -3.349787194373441e-02, 2.073952247442407e+00, 1.613783946022727e-02, -4.520834929849573e-01, 8.034701957749029e-01, -2.717883362630902e-02, 3.444867712611359e-01, -1.162941572075251e-02, 2.551967183073965e+00, -3.273452208869032e+00, -4.327883185051554e-01, -2.254902639834286e+00, 9.307064564116647e-01, 1.810602347958705e+00, 1.601400771224316e+01, 1.606791861861574e+01, 1.659001758469532e+01, -1.378007564867548e+00, 1.320975506747490e+01, 3.709603447903195e+00, 4.010290151558586e+00, -5.498354404510502e+00, -5.238904836757403e+00, 3.453705670440014e+00, 1.267819508898366e+00, -2.127049078436435e+00, 6.183463148770612e+00, -6.443899266016010e+00, -1.928004206474627e+00, 3.486620711959893e+00, 1.083332887928906e+00, -1.008415533237289e+00, 1.228125742189452e+00, 2.231039526135691e+00, -3.257494213979794e+00, 1.327159554457062e+00, -1.891521893387302e-01, -3.203587628007414e-01, -1.215368593441118e+01, -7.769400152793708e+00, -8.337594880017555e+00, 6.045668293329614e+00, -8.071674322080055e+00, 3.395534041928697e-01, -7.513204197742856e+00, -5.189125077471714e+00, -5.327472708732262e+00, 4.486807117367580e+00, -5.902126944062049e+00, 1.170286171942845e+00, -5.152635385494779e-02, 2.764785476593457e-01, 7.386787035081849e+00, 2.155769394141363e+00, 2.956719152487078e+00, 3.722492702401423e+00, -3.091626470124015e+00, -4.420340160657792e+00, -4.676347006030955e+00, 8.226945145145397e-01, 1.014872806912806e+00, 1.695433889134224e+00, 1.175046918063285e+00, 4.133133020580566e+00, -8.025771057718672e-02, 2.451951017683675e-01, -2.711818469512054e+00, -4.116488683263842e+00, 1.770457869018319e+00, 1.984366659489105e+00, 8.434573514946500e+00, -1.450611287251549e+00, -3.872855783667913e+00, -2.458063542572374e+00, -8.078187260662382e-01, 7.327284632521339e-01, -1.105502525705314e+00, -1.699050271596507e+01, -2.875209941480429e+01, -1.730296652547900e+01, -1.477393725583882e+01, -1.185208536695470e+01, -3.691398508817157e+00, 1.080309281362538e+01, 2.539339009837904e+01, 1.450270636960076e+01, 6.581972110163887e+00, 8.400214718169060e+00, 2.940328862577898e+00, 9.145127559276505e+00, 7.385918093314885e+00, 5.546372790569095e+00, 2.097845963825291e+00, 5.512022058209103e+00, 3.063919272371703e+00, -1.038342932516794e+01, -7.314094724998306e+00, -1.243411869731814e+00, 6.600074873741336e+00, 9.240516411939015e-01, -1.264624989065607e+00, -4.375295777948799e+00, -1.021746771657375e+01, -6.243932678395786e+00, -7.121963008943348e+00, -2.039208094916661e+00, -1.367223618621527e+00, 2.632584806522604e+00, 6.679112271787754e-01, -1.466877306640645e+00, -2.789029889844089e+00, -7.454757742286531e-01, -2.343918423833000e+00, 6.709638959156164e+00, 1.687503748922432e+01, 4.710026028747425e+00, -8.035943251637507e+00, 1.179833764053571e+00, 6.729419854592978e+00, 1.712354802824136e+01, 1.275758222402116e+01, 6.272386779549479e+00, 5.271716387515753e+00, -1.914020851727899e+00, 7.106020532230693e+00, 7.036882549061431e-01, -3.565150573813294e-01, 4.347466783425766e+00, 9.396883994971613e+00, -6.262569886707704e+00, -6.286540771647589e+00, -4.471370312254741e+00, -2.009603504799629e+00, -4.141918536256307e+00, -3.680688502070532e+00, 2.833924778328374e+00, 3.337459244797889e+00, -2.089836119688400e+00, 6.951549660837859e-01, -2.143736418929847e+00, 2.591155303304704e+00, 2.270404711874072e+00, 3.653951945523469e-01, 6.520590538819866e+00, 1.676499228682114e+00, 3.491374433699897e+00, 9.501489428924690e-01, 6.428707911977503e-01, 7.811441928183747e-01, -4.698834915170348e+00, -1.490520857950340e+00, -4.517806224644930e+00, 1.930548334412161e+01, 1.916950168310557e+01, 6.423173268316765e+00, -1.178966562193423e+00, -1.486794059954498e+00, -1.684174962079400e-01, -2.941171543382269e+00, 1.032002623016047e+01, -3.736310511316334e-01, -1.003411457709702e+01, 2.368862656048702e+00, -3.672457596029406e-01}