MTP
version = 1.1.0
potential_name = MTP_l2k3
scaling = 3.186308177103570e-02
L = 2
scaling_map = LK
species_count = 6
potential_tag = 
radial_basis_type = RBChebyshev_sss_lmp
	min_dist = 2.000000000000000e+00
	max_dist = 6.500000000000000e+00
	radial_basis_size = 8
	radial_funcs_count = 9
shift_coeffs = {-7.894774349185749e+02, -1.022224022714868e+03, -7.538697968636870e+01, -4.700923937591490e+03, 2.029491643317199e+02, -4.594537763591529e+03}
scal_coeffs = {4.649020433281573e+00, 3.472428550546459e-04, 3.271247401711771e+00, 1.390697233243933e+00, 3.810217164567765e+00, 3.666966482773118e+00, 2.881427733042825e-01, 1.335218456051329e+00, -1.745258554356139e-01, 4.799693684333091e-01, -1.987000924521327e-01, -1.563336224170265e-01, 2.426794008960942e+00, 7.090071799073776e-01, 2.962830464113527e+00, 3.623142718296034e+00, 3.000000000000000e+00, 3.000000000000000e+00, 9.000780406475571e-01, 7.218901262838699e-01, 3.884616496871989e+00, 4.514866398828846e-01, 3.567600801149876e+00, 3.688647376984842e+00, 7.927970056889928e-01, 5.787962306722652e-01, 3.000000000000000e+00, 2.258106586186872e+00, 3.806181761269870e+00, 3.000000000000000e+00, 1.621923934002834e+00, 6.740794219045497e-01, 3.000000000000000e+00, 3.523113449021199e+00, 3.000000000000000e+00, 3.673022937990635e+00, 7.614195858227860e-02, 7.002080320551127e-01, 1.023789259645726e+00, -7.454309862800905e-01, 1.454510641794391e-01, 4.851671742500095e-01, -1.688700378582216e-01, -9.717028141344592e-01, 2.442042292250842e+00, 8.218062042652380e-01, 2.848009152332101e+00, 2.140779540221512e+00, -4.292744396594989e-02, 1.069421836473956e+00, 9.977467244592025e-01, -2.761422700397730e-01, 2.000000000000000e+00, 2.000000000000000e+00, 6.179499743701310e-01, 1.862660074496131e+00, 4.288093402023727e-01, -6.630651028675893e+00, -9.277917918322456e-02, 4.311221576348096e-01, -1.209819551906270e+00, 6.198521241750256e-01, 2.000000000000000e+00, 1.003660001615220e+00, 1.555282485871437e-01, 2.000000000000000e+00, 6.769503356407214e-01, 1.107095075334106e+00, 2.000000000000000e+00, 2.775134289038569e-01, 2.000000000000000e+00, 7.950066598399393e-01, 4.333813323535077e+00, 1.354773633048867e+00, 3.250134951796687e+00, 3.557710661422798e+00, 3.210787260939000e+00, 3.266349739513057e+00, 6.406212515657094e-01, 4.577528363702711e+00, 4.784333881565582e-01, 5.343206278293237e-01, 4.333076499202394e-01, 4.334182233078256e-01, 4.092115761362816e+00, 8.588802442964654e-01, 4.571842336180289e+00, 3.779926928773135e+00, 3.000000000000000e+00, 3.000000000000000e+00, 3.995198242699259e+00, 8.098608334639071e-01, 3.736302821552633e+00, 3.598856652248915e+00, 3.803921571560284e+00, 3.797706581764611e+00, 3.499426720939845e+00, 1.481091221995886e+00, 3.000000000000000e+00, 2.059009716717828e+00, 3.899864427422536e+00, 3.000000000000000e+00, 2.688497245790768e+00, 9.567237730146985e-01, 3.000000000000000e+00, 3.026573835502048e+00, 3.000000000000000e+00, 3.980592759253216e+00, -8.903709817091418e-01, 8.644198077451757e-01, 1.652696055731031e+00, -4.796171021951650e-01, 1.649721367961116e+00, 1.399181533967751e+00, -1.519992447092915e+00, -6.038137527614641e-01, 5.308404575563552e+00, 1.578083483174119e+00, 5.530703874596925e+00, 5.535977128686848e+00, 3.858634669009754e-01, -5.543791932922761e-01, -8.089404105540091e-01, 6.129082814825089e-01, 2.000000000000000e+00, 2.000000000000000e+00, -8.040155171650339e-01, -1.829944754990676e+00, 2.910205370296944e-01, -8.742744247042463e-01, 2.705786315596943e-01, 5.177186034952064e-01, 8.182527952328567e-01, 3.952133128393429e-01, 2.000000000000000e+00, 1.389679793222366e+00, -6.629593587439754e-01, 2.000000000000000e+00, 1.568041583862666e+00, -2.147164370737244e-01, 2.000000000000000e+00, 7.574507412416502e-01, 2.000000000000000e+00, 2.721745854936695e+00, 4.225680956777518e+00, 1.281484763585470e+00, 3.318716704461997e+00, 3.656536170416145e+00, 2.690881496852259e+00, 3.198662003120903e+00, 3.355630238944844e-01, 1.685566105594631e+00, 1.077236656874407e+00, 9.923116987422932e-01, 1.289066680095409e+00, 1.015337174171809e+00, 3.380406713642526e+00, 1.371423319422918e+00, 2.438864053936489e+00, 2.634084520628464e+00, 3.000000000000000e+00, 3.000000000000000e+00, 3.472012588424806e+00, 1.348091693923225e+00, 5.199666124179955e-01, 1.311832935774745e+00, 3.391960468499557e+00, 3.383496443700189e+00, 3.431751770398878e+00, 1.764807893656335e+00, 3.000000000000000e+00, 2.474873253621630e+00, 2.615613014654217e+00, 3.000000000000000e+00, 3.386559487698182e+00, 1.291268506907902e+00, 3.000000000000000e+00, 2.641601757801438e+00, 3.000000000000000e+00, 3.341272650725054e+00, 1.972695861145065e+00, 7.703270696023697e-01, 9.324373445559695e-01, -5.982979542756860e-01, 2.298956861455722e+00, 1.651065554215504e+00, -1.482960628495644e+00, 1.865871346092147e-01, 2.600229914866062e+00, 2.189458541778638e+00, 3.006125075604354e+00, 2.765244376821973e+00, 1.056300481126973e+00, 1.536819760794036e+00, 2.586977418044555e+00, 2.376428366306395e+00, 2.000000000000000e+00, 2.000000000000000e+00, 6.207277382119175e-01, 2.389767607262670e+00, -1.302397930295148e+00, 3.820811336710552e-01, 8.197861875536075e-01, 1.061028169262003e+00, 9.819694226789725e-01, 2.018450909736769e+00, 2.000000000000000e+00, 1.840208943573190e+00, 1.617039757137380e+00, 2.000000000000000e+00, 1.143238648591477e+00, 1.627916601616896e+00, 2.000000000000000e+00, 1.655089005610190e+00, 2.000000000000000e+00, 1.256914439898233e+00, 1.317416825645639e+00, 1.005544896396222e+00, 1.320261334653944e+00, 2.368294183210675e+00, 1.228918907975397e+00, 1.448325484741142e+00, 1.088346714603779e+00, 9.355348511514028e-01, 3.783271711089589e+00, 2.472756329861322e+00, 4.532614203136283e+00, 3.870935949524876e+00, 3.292911144285847e+00, 1.966411206505857e+00, 1.144887326403706e+00, 3.120902505561563e+00, 3.000000000000000e+00, 3.000000000000000e+00, 9.118274611293024e-01, 1.190201801166091e+00, 7.270143406095361e-01, 1.022606199591811e+00, 8.723430757848530e-01, 7.063817646393670e-01, 1.482599894654230e+00, 1.189844695718762e+00, 3.000000000000000e+00, 2.600611650834737e+00, 1.347292924990932e+00, 3.000000000000000e+00, 2.452365576071493e+00, 2.558933386231048e+00, 3.000000000000000e+00, 4.048132461887647e+00, 3.000000000000000e+00, 1.945383406140428e+00, 1.726337055896525e+00, 1.687583976865170e+00, 2.128055685330242e+00, 1.563962799461534e+00, 2.310356643083048e+00, 2.462624941253592e+00, 6.774790404338842e-01, -2.641683847969722e-01, 7.380981412127531e-01, 1.189383714210093e+00, 5.770811020364151e-01, 1.164050844922806e+00, 1.439043031429480e+00, 1.472001119286324e+00, 1.597493849227506e+00, 1.686983112121198e+00, 2.000000000000000e+00, 2.000000000000000e+00, 1.756380477740647e+00, 1.488151637156782e+00, 1.372981476116122e+00, 1.638918408468106e+00, 1.951063023396295e+00, 1.147105108650176e+00, 1.692345621054928e+00, 1.733276879419998e+00, 2.000000000000000e+00, 1.537145567519860e-01, 2.467182143424991e+00, 2.000000000000000e+00, 1.496606274668584e+00, 1.598961380871292e+00, 2.000000000000000e+00, 1.945259198422716e+00, 2.000000000000000e+00, 2.194266263062906e+00, 6.412672452618180e-01, 1.547650812946017e+00, 3.320688139146136e+00, 1.875339487986475e+00, 1.099820631114172e+00, 1.658493748048408e+00, 6.596297307916490e-01, 3.944904071847323e+00, 1.313914517143147e+00, 9.006431490626304e-01, 1.211130021229988e+00, 1.890241012355379e+00, 3.662731936845994e+00, 1.204319347147112e+00, 4.094856487452168e+00, 3.571918171624808e+00, 3.000000000000000e+00, 3.000000000000000e+00, 3.627893673673479e+00, 2.613687673733194e+00, 3.196690997129579e+00, 1.845588180043448e+00, 3.585747018033869e+00, 2.855828758408404e+00, 3.036986023530378e+00, 1.987663987869095e+00, 3.000000000000000e+00, 1.513141697804078e+00, 3.140740731217727e+00, 3.000000000000000e+00, 2.858486298181165e+00, 4.929022594591818e-01, 3.000000000000000e+00, 3.756627462243730e+00, 3.000000000000000e+00, 3.354718874046938e+00, 1.543159579240909e+00, 1.021832338797932e+00, 2.287539873459969e+00, 1.012297303496144e+00, 2.700565753179600e+00, 3.251400493642423e+00, 1.424437466490847e+00, -9.957230178483661e-01, 1.239097121773354e+00, 2.166141438933219e-01, 1.367416813064241e+00, 1.699734525278434e+00, -3.692979634900800e-01, 2.129105876470354e+00, 2.643008207868938e-02, 1.495160971242635e+00, 2.000000000000000e+00, 2.000000000000000e+00, -9.186219720083360e-01, 3.727264061183547e-01, -1.225672860852647e-02, 4.264385802139088e-01, 3.737839449488901e-01, 1.063006341926450e+00, 1.529773598832156e+00, 1.258183133882514e+00, 2.000000000000000e+00, 1.804024201897584e+00, 2.418093815888225e+00, 2.000000000000000e+00, 1.131948098711301e+00, -2.721641443535780e+00, 2.000000000000000e+00, 2.071512609385223e+00, 2.000000000000000e+00, 2.030975954462503e+00, 6.129556670404696e-01, 5.349710072856667e-01, 1.409252192587312e+00, 1.345487937722469e+00, 2.232778760202438e+00, -2.692725887920196e-01, 2.637146135420064e-01, 1.006612737224945e+00, 4.144556845994762e-01, 2.864178461769710e-01, 3.472845154505483e-01, 4.260584739526277e-01, 1.582152250941015e+00, 2.974044573114414e-01, 2.984437190502279e+00, 1.546390442126639e+00, 3.000000000000000e+00, 3.000000000000000e+00, 1.290616145564912e+00, 6.957620803087669e-01, 3.603629164780527e+00, 2.595372439455501e+00, 3.308358047493335e+00, 3.283975474234519e+00, 8.872237257443575e-01, 3.115790108926730e-01, 3.000000000000000e+00, 1.757353771035101e+00, 3.258797723298113e+00, 3.000000000000000e+00, 2.894158485513677e+00, 2.868722217662314e-01, 3.000000000000000e+00, 1.126368568339563e+00, 3.000000000000000e+00, 3.426931949154936e+00, 4.142800041163803e-01, 2.603739139519023e+00, -1.068053261949980e+00, 1.476791343545225e+00, 1.610770907453535e+00, 2.978971856241584e+00, -6.335637546453854e-01, -3.061621428647069e-02, 2.086831401207097e+00, 1.489036447030378e+00, 2.267084183672178e+00, 2.408905455942723e+00, 2.458466447350723e+00, -2.059624379709313e-01, -7.170083329984253e-01, 1.407138230840924e+00, 2.000000000000000e+00, 2.000000000000000e+00, 9.112072825437165e-01, 1.208766588605043e+00, -7.484652731738222e-01, -2.588410348574478e+00, 3.925216631523072e-01, 7.055911142467248e-01, 1.467063251512443e+00, 1.323411949802286e-01, 2.000000000000000e+00, 2.254808200138831e+00, 1.254831513174189e+00, 2.000000000000000e+00, 1.733639722293100e+00, -5.108723258876399e-02, 2.000000000000000e+00, 1.995790148901041e+00, 2.000000000000000e+00, 1.052697222861588e+00, 3.437722126476250e+00, 7.569685489701592e-01, 3.526713068488559e+00, 4.686682390754036e+00, 3.157524773545908e+00, 3.411178893130665e+00, 3.967556341311505e-01, 5.312364594494876e+00, 9.451698681470941e-01, 6.133608460696359e-01, 8.931084409647453e-01, 8.947609709996993e-01, 3.210149508368592e+00, 1.380150677014212e+00, 3.040115371169239e+00, 3.466165670385370e+00, 3.000000000000000e+00, 3.000000000000000e+00, 4.519699705092842e+00, 1.316217791508170e+00, 3.584614918209418e+00, 9.526276784051181e-01, 3.551315567667285e+00, 3.486571510809328e+00, 2.743952416736064e+00, 1.260290305435446e+00, 3.000000000000000e+00, 3.377901563277101e+00, 3.326364118352610e+00, 3.000000000000000e+00, 3.274870055850812e+00, 1.466986745315458e+00, 3.000000000000000e+00, 3.502549402176996e+00, 3.000000000000000e+00, 2.908331092984637e+00, 1.432844330574133e+00, 1.180600285526274e+00, 4.096379540941424e-01, 8.322974460195287e-01, 1.907795971849408e+00, 2.055221927895052e+00, -3.159785801812993e-01, -2.035539088858770e+00, 2.183937287939796e+00, 1.303112080673519e+00, 2.366890108519807e+00, 2.226194228490476e+00, -3.075560475826302e+00, 5.693254652345727e-01, 1.388412467540013e+00, 9.081239221986358e-01, 2.000000000000000e+00, 2.000000000000000e+00, -1.435087189766175e+00, 1.452995605163172e+00, 6.534962301637809e-01, 8.192589280482030e-01, 8.022272370114643e-01, 8.724973848764981e-01, 1.592777029707615e+00, 1.080227300931292e+00, 2.000000000000000e+00, 9.586483573684478e-01, 1.874538555033529e+00, 2.000000000000000e+00, 1.934318210579487e+00, 8.100620159206020e-01, 2.000000000000000e+00, 6.870245072624339e-01, 2.000000000000000e+00, 1.963011483836418e+00, 7.627974385516344e+00, 1.031056412519968e+00, 3.256861381083610e+00, 1.008668077430289e+00, 3.694234526774647e+00, 3.454335744013220e+00, 2.985498386658272e+00, 6.598638799741716e-01, 2.102784953570589e+00, 1.597982045497297e+00, 1.903046743672215e+00, 1.692694456851207e+00, 3.802834039400409e+00, 1.691112649106721e+00, 5.297761911371026e-01, 6.777563937566323e-01, 3.000000000000000e+00, 3.000000000000000e+00, 3.456129582057285e+00, 5.653177139835498e-01, 3.587009389029924e+00, 3.866324145595128e+00, 3.942398346254062e+00, 3.663029630485329e+00, 3.347062459965552e+00, 1.503725209965566e+00, 3.000000000000000e+00, 9.606769864869331e-01, 1.819163048269191e+00, 3.000000000000000e+00, 3.419389483547596e+00, 1.322372934915427e+00, 3.000000000000000e+00, 1.094060240709211e+00, 3.000000000000000e+00, 2.275393090855284e+00, 1.552928498005340e+00, 8.726215433502108e-01, 1.150573662699881e+00, -6.484928303684483e-01, 6.995357234811147e-01, 9.281559185797421e-01, 5.121887132485740e-01, -2.960954671507394e+00, 1.853864423959074e+00, 1.590790816537961e+00, 1.938727508145398e+00, 1.976680511295409e+00, 3.424019027849478e-01, 1.576228512899595e+00, 1.884178521481092e+00, -1.231815778459271e+00, 2.000000000000000e+00, 2.000000000000000e+00, 9.830139313123861e-01, 4.639773366651521e+00, 1.273924622898650e+00, -4.627002471191716e-01, 7.307744037120292e-01, 6.934395310734415e-01, 1.568585824732418e+00, 8.732216721036519e-01, 2.000000000000000e+00, 1.300677374789155e+00, 1.989131800280471e+00, 2.000000000000000e+00, 1.115439145212532e+00, 1.129424471171002e+00, 2.000000000000000e+00, 5.086376766500820e-01, 2.000000000000000e+00, 2.418299237809407e+00, 5.033362472169567e-01, 5.332311875572408e+00, 3.556434643354045e+00, 3.196859592207320e+00, 9.808360279445776e-01, 1.999257058134299e+00, 4.319663008827408e+00, 1.382793052681380e+00, 3.214395003556875e+00, 4.166137709169447e+00, 2.323999329070850e+00, 3.277833879277440e+00, 3.341888985125274e+00, 4.105888456512358e+00, 2.752785100734193e+00, 2.362278366802071e+00, 3.000000000000000e+00, 3.000000000000000e+00, 1.389716130847284e+00, 5.439887375528925e-01, 3.843982253739013e+00, 5.123958442449977e+00, 3.998451497451264e+00, 3.765753106351875e+00, 3.996095457674155e+00, 4.645713963901263e+00, 3.000000000000000e+00, 2.672770946175427e+00, 1.391405710203748e+00, 3.000000000000000e+00, 3.391214470834420e+00, 3.544692298459013e+00, 3.000000000000000e+00, 3.506304466442301e+00, 3.000000000000000e+00, 1.280165042802612e+00, 1.762940936594198e+00, -2.120228705734701e-01, 2.191695980338409e+00, 2.075470816435158e+00, 7.057522740854398e+00, 1.381435138317860e+00, 1.394207243189027e+00, -2.671065148086206e-01, 1.734440549300746e+00, 1.268935653242444e+00, 1.806622081467713e+00, 1.909216293171657e+00, 1.857290620769957e+00, 7.345624173079881e-01, 2.291299657218047e+00, 2.128452140001681e+00, 2.000000000000000e+00, 2.000000000000000e+00, -9.468824438142681e-01, -7.880447451009911e-01, 2.017493767591098e+00, -1.724166457735391e+00, 9.971735551313927e-01, 1.897978818108662e+00, 2.416937061312095e+00, 2.913461807685631e-01, 2.000000000000000e+00, 1.954483313945440e+00, 3.579640564577631e-01, 2.000000000000000e+00, 1.964491246661451e+00, 8.801628097231093e-01, 2.000000000000000e+00, 7.738016249718863e-01, 2.000000000000000e+00, 5.349468074593708e-01}
	radial_coeffs
		0-0
			{3.675749425424904e+00, -2.517182291997113e+00, -2.627481351313312e+00, 4.997143957609786e+00, -4.958989735768953e+00, 1.531433370445161e+00, -6.717431955151665e-02, -1.100480709611512e+00, 2.523346216338592e-01, 1.168583853425835e+00, 5.664885869496170e-01, 4.000034022770537e-01, 5.686694644920554e-01, 5.576580992131716e-01}
			{8.877519664531445e-01, -1.634849489716964e-01, -7.021387103454546e-01, 1.417279463634851e-01, -3.427695722800224e-01, 1.972293706446850e-01, -3.838780846148920e-02, -4.296762571397981e-01, 1.000000000000000e+00, 1.000000000000000e+00, 1.000000000000000e+00, 1.000000000000000e+00, 1.000000000000000e+00, 1.000000000000000e+00}
			{-1.993241188218548e-01, 1.590243918933853e-01, -9.842924240093025e-01, 4.993262579494283e-01, -2.131097432627146e-01, 6.575498550027219e-02, -2.276460897377058e-03, -1.868988287010588e-02, 1.000000000000000e+00, 1.000000000000000e+00, 1.000000000000000e+00, 1.000000000000000e+00, 1.000000000000000e+00, 1.000000000000000e+00}
			{7.128525745205760e+00, -8.282117800990527e+00, -2.528176457395753e+00, 7.376548386285236e+00, -6.322321046462464e+00, 3.077335198351089e+00, -8.800912999782989e-01, 1.166235783641259e-01, 1.000000000000000e+00, 1.000000000000000e+00, 1.000000000000000e+00, 1.000000000000000e+00, 1.000000000000000e+00, 1.000000000000000e+00}
			{1.862241345775952e+00, -3.479717361560084e+00, 1.436974520198376e+00, 1.031815589478296e+00, -1.793611252882536e+00, 1.600295904625701e+00, -9.106178937328160e-01, 3.406213039156985e-01, 1.000000000000000e+00, 1.000000000000000e+00, 1.000000000000000e+00, 1.000000000000000e+00, 1.000000000000000e+00, 1.000000000000000e+00}
			{-1.636985771303108e+00, 2.287412373564518e+00, -9.819092600257406e-01, 3.016792372112784e-02, 7.113594690356895e-01, -8.143451199847190e-01, 4.799535619905475e-01, -4.804565417044310e-02, 1.000000000000000e+00, 1.000000000000000e+00, 1.000000000000000e+00, 1.000000000000000e+00, 1.000000000000000e+00, 1.000000000000000e+00}
			{2.098959393333799e+00, -5.767220358510172e-02, -4.419314182059654e+00, -1.210919067804397e-01, 2.011642137600944e+00, -1.111977672682143e+00, 4.677120749066546e-01, -7.719540038973605e-02, 1.000000000000000e+00, 1.000000000000000e+00, 1.000000000000000e+00, 1.000000000000000e+00, 1.000000000000000e+00, 1.000000000000000e+00}
			{1.101844145087747e-01, -5.427659334570618e-01, -1.731413597586099e-01, 1.082773243347646e+00, -9.145845951943032e-01, 8.379970898118929e-01, -3.883376193856360e-01, 1.506730767244323e-01, 1.000000000000000e+00, 1.000000000000000e+00, 1.000000000000000e+00, 1.000000000000000e+00, 1.000000000000000e+00, 1.000000000000000e+00}
			{-2.202218098184806e-01, 2.570621685370115e-01, 6.840804692003603e-01, -5.453886471089326e-02, -2.025831946740302e-01, 3.936909636129962e-01, -2.396121596116222e-01, 6.970688448638504e-02, 1.000000000000000e+00, 1.000000000000000e+00, 1.000000000000000e+00, 1.000000000000000e+00, 1.000000000000000e+00, 1.000000000000000e+00}
alpha_moments_count = 238
alpha_index_basic_count = 30
alpha_index_basic = {{0, 0, 0, 0}, {1, 1, 0, 0}, {1, 0, 1, 0}, {1, 0, 0, 1}, {2, 2, 0, 0}, {2, 1, 1, 0}, {2, 1, 0, 1}, {2, 0, 2, 0}, {2, 0, 1, 1}, {2, 0, 0, 2}, {3, 0, 0, 0}, {4, 1, 0, 0}, {4, 0, 1, 0}, {4, 0, 0, 1}, {5, 2, 0, 0}, {5, 1, 1, 0}, {5, 1, 0, 1}, {5, 0, 2, 0}, {5, 0, 1, 1}, {5, 0, 0, 2}, {6, 0, 0, 0}, {7, 1, 0, 0}, {7, 0, 1, 0}, {7, 0, 0, 1}, {8, 2, 0, 0}, {8, 1, 1, 0}, {8, 1, 0, 1}, {8, 0, 2, 0}, {8, 0, 1, 1}, {8, 0, 0, 2}}
alpha_index_times_count = 436
alpha_index_times = {{0, 0, 1, 30}, {0, 30, 1, 31}, {10, 30, 1, 32}, {20, 30, 1, 33}, {0, 10, 1, 34}, {10, 34, 1, 35}, {20, 34, 1, 36}, {0, 20, 1, 37}, {20, 37, 1, 38}, {10, 10, 1, 39}, {10, 39, 1, 40}, {20, 39, 1, 41}, {10, 20, 1, 42}, {20, 42, 1, 43}, {20, 20, 1, 44}, {20, 44, 1, 45}, {1, 1, 1, 46}, {2, 2, 1, 46}, {3, 3, 1, 46}, {1, 11, 1, 47}, {2, 12, 1, 47}, {3, 13, 1, 47}, {1, 21, 1, 48}, {2, 22, 1, 48}, {3, 23, 1, 48}, {11, 11, 1, 49}, {12, 12, 1, 49}, {13, 13, 1, 49}, {11, 21, 1, 50}, {12, 22, 1, 50}, {13, 23, 1, 50}, {21, 21, 1, 51}, {22, 22, 1, 51}, {23, 23, 1, 51}, {4, 4, 1, 52}, {5, 5, 2, 52}, {6, 6, 2, 52}, {7, 7, 1, 52}, {8, 8, 2, 52}, {9, 9, 1, 52}, {4, 14, 1, 53}, {5, 15, 2, 53}, {6, 16, 2, 53}, {7, 17, 1, 53}, {8, 18, 2, 53}, {9, 19, 1, 53}, {4, 24, 1, 54}, {5, 25, 2, 54}, {6, 26, 2, 54}, {7, 27, 1, 54}, {8, 28, 2, 54}, {9, 29, 1, 54}, {14, 14, 1, 55}, {15, 15, 2, 55}, {16, 16, 2, 55}, {17, 17, 1, 55}, {18, 18, 2, 55}, {19, 19, 1, 55}, {14, 24, 1, 56}, {15, 25, 2, 56}, {16, 26, 2, 56}, {17, 27, 1, 56}, {18, 28, 2, 56}, {19, 29, 1, 56}, {24, 24, 1, 57}, {25, 25, 2, 57}, {26, 26, 2, 57}, {27, 27, 1, 57}, {28, 28, 2, 57}, {29, 29, 1, 57}, {0, 46, 1, 58}, {0, 47, 1, 59}, {0, 48, 1, 60}, {0, 49, 1, 61}, {0, 50, 1, 62}, {0, 51, 1, 63}, {10, 46, 1, 64}, {10, 47, 1, 65}, {10, 48, 1, 66}, {10, 49, 1, 67}, {10, 50, 1, 68}, {10, 51, 1, 69}, {20, 46, 1, 70}, {20, 47, 1, 71}, {20, 48, 1, 72}, {20, 49, 1, 73}, {20, 50, 1, 74}, {20, 51, 1, 75}, {0, 52, 1, 76}, {0, 53, 1, 77}, {0, 54, 1, 78}, {0, 55, 1, 79}, {0, 56, 1, 80}, {0, 57, 1, 81}, {10, 52, 1, 82}, {10, 53, 1, 83}, {10, 54, 1, 84}, {10, 55, 1, 85}, {10, 56, 1, 86}, {10, 57, 1, 87}, {20, 52, 1, 88}, {20, 53, 1, 89}, {20, 54, 1, 90}, {20, 55, 1, 91}, {20, 56, 1, 92}, {20, 57, 1, 93}, {46, 46, 1, 94}, {46, 47, 1, 95}, {46, 48, 1, 96}, {46, 49, 1, 97}, {46, 50, 1, 98}, {46, 51, 1, 99}, {47, 47, 1, 100}, {47, 48, 1, 101}, {47, 49, 1, 102}, {47, 50, 1, 103}, {47, 51, 1, 104}, {48, 48, 1, 105}, {48, 49, 1, 106}, {48, 50, 1, 107}, {48, 51, 1, 108}, {49, 49, 1, 109}, {49, 50, 1, 110}, {49, 51, 1, 111}, {50, 50, 1, 112}, {50, 51, 1, 113}, {51, 51, 1, 114}, {46, 52, 1, 115}, {46, 53, 1, 116}, {46, 54, 1, 117}, {46, 55, 1, 118}, {46, 56, 1, 119}, {46, 57, 1, 120}, {47, 52, 1, 121}, {47, 53, 1, 122}, {47, 54, 1, 123}, {47, 55, 1, 124}, {47, 56, 1, 125}, {47, 57, 1, 126}, {48, 52, 1, 127}, {48, 53, 1, 128}, {48, 54, 1, 129}, {48, 55, 1, 130}, {48, 56, 1, 131}, {48, 57, 1, 132}, {49, 52, 1, 133}, {49, 53, 1, 134}, {49, 54, 1, 135}, {49, 55, 1, 136}, {49, 56, 1, 137}, {49, 57, 1, 138}, {50, 52, 1, 139}, {50, 53, 1, 140}, {50, 54, 1, 141}, {50, 55, 1, 142}, {50, 56, 1, 143}, {50, 57, 1, 144}, {51, 52, 1, 145}, {51, 53, 1, 146}, {51, 54, 1, 147}, {51, 55, 1, 148}, {51, 56, 1, 149}, {51, 57, 1, 150}, {52, 52, 1, 151}, {52, 53, 1, 152}, {52, 54, 1, 153}, {52, 55, 1, 154}, {52, 56, 1, 155}, {52, 57, 1, 156}, {53, 53, 1, 157}, {53, 54, 1, 158}, {53, 55, 1, 159}, {53, 56, 1, 160}, {53, 57, 1, 161}, {54, 54, 1, 162}, {54, 55, 1, 163}, {54, 56, 1, 164}, {54, 57, 1, 165}, {55, 55, 1, 166}, {55, 56, 1, 167}, {55, 57, 1, 168}, {56, 56, 1, 169}, {56, 57, 1, 170}, {57, 57, 1, 171}, {1, 1, 1, 172}, {1, 2, 1, 173}, {1, 3, 1, 174}, {2, 2, 1, 175}, {2, 3, 1, 176}, {3, 3, 1, 177}, {4, 172, 1, 178}, {5, 173, 2, 178}, {6, 174, 2, 178}, {7, 175, 1, 178}, {8, 176, 2, 178}, {9, 177, 1, 178}, {14, 172, 1, 179}, {15, 173, 2, 179}, {16, 174, 2, 179}, {17, 175, 1, 179}, {18, 176, 2, 179}, {19, 177, 1, 179}, {24, 172, 1, 180}, {25, 173, 2, 180}, {26, 174, 2, 180}, {27, 175, 1, 180}, {28, 176, 2, 180}, {29, 177, 1, 180}, {11, 11, 1, 181}, {11, 12, 1, 182}, {11, 13, 1, 183}, {12, 12, 1, 184}, {12, 13, 1, 185}, {13, 13, 1, 186}, {4, 181, 1, 187}, {5, 182, 2, 187}, {6, 183, 2, 187}, {7, 184, 1, 187}, {8, 185, 2, 187}, {9, 186, 1, 187}, {14, 181, 1, 188}, {15, 182, 2, 188}, {16, 183, 2, 188}, {17, 184, 1, 188}, {18, 185, 2, 188}, {19, 186, 1, 188}, {24, 181, 1, 189}, {25, 182, 2, 189}, {26, 183, 2, 189}, {27, 184, 1, 189}, {28, 185, 2, 189}, {29, 186, 1, 189}, {21, 21, 1, 190}, {21, 22, 1, 191}, {21, 23, 1, 192}, {22, 22, 1, 193}, {22, 23, 1, 194}, {23, 23, 1, 195}, {4, 190, 1, 196}, {5, 191, 2, 196}, {6, 192, 2, 196}, {7, 193, 1, 196}, {8, 194, 2, 196}, {9, 195, 1, 196}, {14, 190, 1, 197}, {15, 191, 2, 197}, {16, 192, 2, 197}, {17, 193, 1, 197}, {18, 194, 2, 197}, {19, 195, 1, 197}, {24, 190, 1, 198}, {25, 191, 2, 198}, {26, 192, 2, 198}, {27, 193, 1, 198}, {28, 194, 2, 198}, {29, 195, 1, 198}, {172, 172, 1, 199}, {173, 173, 2, 199}, {174, 174, 2, 199}, {175, 175, 1, 199}, {176, 176, 2, 199}, {177, 177, 1, 199}, {172, 181, 1, 200}, {173, 182, 2, 200}, {174, 183, 2, 200}, {175, 184, 1, 200}, {176, 185, 2, 200}, {177, 186, 1, 200}, {172, 190, 1, 201}, {173, 191, 2, 201}, {174, 192, 2, 201}, {175, 193, 1, 201}, {176, 194, 2, 201}, {177, 195, 1, 201}, {181, 181, 1, 202}, {182, 182, 2, 202}, {183, 183, 2, 202}, {184, 184, 1, 202}, {185, 185, 2, 202}, {186, 186, 1, 202}, {181, 190, 1, 203}, {182, 191, 2, 203}, {183, 192, 2, 203}, {184, 193, 1, 203}, {185, 194, 2, 203}, {186, 195, 1, 203}, {190, 190, 1, 204}, {191, 191, 2, 204}, {192, 192, 2, 204}, {193, 193, 1, 204}, {194, 194, 2, 204}, {195, 195, 1, 204}, {4, 4, 1, 205}, {5, 5, 1, 205}, {6, 6, 1, 205}, {4, 5, 1, 206}, {5, 7, 1, 206}, {6, 8, 1, 206}, {4, 6, 1, 207}, {5, 8, 1, 207}, {6, 9, 1, 207}, {5, 5, 1, 208}, {7, 7, 1, 208}, {8, 8, 1, 208}, {5, 6, 1, 209}, {7, 8, 1, 209}, {8, 9, 1, 209}, {6, 6, 1, 210}, {8, 8, 1, 210}, {9, 9, 1, 210}, {4, 205, 1, 211}, {5, 206, 2, 211}, {6, 207, 2, 211}, {7, 208, 1, 211}, {8, 209, 2, 211}, {9, 210, 1, 211}, {14, 205, 1, 212}, {15, 206, 2, 212}, {16, 207, 2, 212}, {17, 208, 1, 212}, {18, 209, 2, 212}, {19, 210, 1, 212}, {24, 205, 1, 213}, {25, 206, 2, 213}, {26, 207, 2, 213}, {27, 208, 1, 213}, {28, 209, 2, 213}, {29, 210, 1, 213}, {14, 14, 1, 214}, {15, 15, 1, 214}, {16, 16, 1, 214}, {14, 15, 1, 215}, {15, 17, 1, 215}, {16, 18, 1, 215}, {14, 16, 1, 216}, {15, 18, 1, 216}, {16, 19, 1, 216}, {15, 15, 1, 217}, {17, 17, 1, 217}, {18, 18, 1, 217}, {15, 16, 1, 218}, {17, 18, 1, 218}, {18, 19, 1, 218}, {16, 16, 1, 219}, {18, 18, 1, 219}, {19, 19, 1, 219}, {4, 214, 1, 220}, {5, 215, 2, 220}, {6, 216, 2, 220}, {7, 217, 1, 220}, {8, 218, 2, 220}, {9, 219, 1, 220}, {14, 214, 1, 221}, {15, 215, 2, 221}, {16, 216, 2, 221}, {17, 217, 1, 221}, {18, 218, 2, 221}, {19, 219, 1, 221}, {24, 214, 1, 222}, {25, 215, 2, 222}, {26, 216, 2, 222}, {27, 217, 1, 222}, {28, 218, 2, 222}, {29, 219, 1, 222}, {24, 24, 1, 223}, {25, 25, 1, 223}, {26, 26, 1, 223}, {24, 25, 1, 224}, {25, 27, 1, 224}, {26, 28, 1, 224}, {24, 26, 1, 225}, {25, 28, 1, 225}, {26, 29, 1, 225}, {25, 25, 1, 226}, {27, 27, 1, 226}, {28, 28, 1, 226}, {25, 26, 1, 227}, {27, 28, 1, 227}, {28, 29, 1, 227}, {26, 26, 1, 228}, {28, 28, 1, 228}, {29, 29, 1, 228}, {4, 223, 1, 229}, {5, 224, 2, 229}, {6, 225, 2, 229}, {7, 226, 1, 229}, {8, 227, 2, 229}, {9, 228, 1, 229}, {14, 223, 1, 230}, {15, 224, 2, 230}, {16, 225, 2, 230}, {17, 226, 1, 230}, {18, 227, 2, 230}, {19, 228, 1, 230}, {24, 223, 1, 231}, {25, 224, 2, 231}, {26, 225, 2, 231}, {27, 226, 1, 231}, {28, 227, 2, 231}, {29, 228, 1, 231}, {205, 205, 1, 232}, {206, 206, 2, 232}, {207, 207, 2, 232}, {208, 208, 1, 232}, {209, 209, 2, 232}, {210, 210, 1, 232}, {205, 214, 1, 233}, {206, 215, 2, 233}, {207, 216, 2, 233}, {208, 217, 1, 233}, {209, 218, 2, 233}, {210, 219, 1, 233}, {205, 223, 1, 234}, {206, 224, 2, 234}, {207, 225, 2, 234}, {208, 226, 1, 234}, {209, 227, 2, 234}, {210, 228, 1, 234}, {214, 214, 1, 235}, {215, 215, 2, 235}, {216, 216, 2, 235}, {217, 217, 1, 235}, {218, 218, 2, 235}, {219, 219, 1, 235}, {214, 223, 1, 236}, {215, 224, 2, 236}, {216, 225, 2, 236}, {217, 226, 1, 236}, {218, 227, 2, 236}, {219, 228, 1, 236}, {223, 223, 1, 237}, {224, 224, 2, 237}, {225, 225, 2, 237}, {226, 226, 1, 237}, {227, 227, 2, 237}, {228, 228, 1, 237}}
alpha_scalar_moments = 175
alpha_moment_mapping = {0, 10, 20, 30, 31, 32, 33, 34, 35, 36, 37, 38, 39, 40, 41, 42, 43, 44, 45, 46, 47, 48, 49, 50, 51, 52, 53, 54, 55, 56, 57, 58, 59, 60, 61, 62, 63, 64, 65, 66, 67, 68, 69, 70, 71, 72, 73, 74, 75, 76, 77, 78, 79, 80, 81, 82, 83, 84, 85, 86, 87, 88, 89, 90, 91, 92, 93, 94, 95, 96, 97, 98, 99, 100, 101, 102, 103, 104, 105, 106, 107, 108, 109, 110, 111, 112, 113, 114, 115, 116, 117, 118, 119, 120, 121, 122, 123, 124, 125, 126, 127, 128, 129, 130, 131, 132, 133, 134, 135, 136, 137, 138, 139, 140, 141, 142, 143, 144, 145, 146, 147, 148, 149, 150, 151, 152, 153, 154, 155, 156, 157, 158, 159, 160, 161, 162, 163, 164, 165, 166, 167, 168, 169, 170, 171, 178, 179, 180, 187, 188, 189, 196, 197, 198, 199, 200, 201, 202, 203, 204, 211, 212, 213, 220, 221, 222, 229, 230, 231, 232, 233, 234, 235, 236, 237}
species_coeffs = {2.513521722191868e+00, 1.757999637503211e+00, 1.756249559490522e+00, 2.238418051209872e+00, 1.243900563895537e+00, 2.681993143465560e+00}
moment_coeffs = {-6.386001623424125e-01, 5.021512397773505e+00, -1.657029303069147e+00, 1.660610561317024e-01, -3.516088195317771e-03, -1.234411567289899e-02, 6.522121534537846e-03, -4.910880941746812e-01, 5.767189092850185e-02, -1.839832314394858e-02, 2.279310062432471e-01, -4.993682949731079e-03, 2.002115300618889e-01, -1.194091098175739e-02, 2.463274966218179e-02, -3.659694037246414e-01, 9.475068559544785e-03, 1.360222910480630e-01, -6.905983980600601e-03, -1.911503414690093e+00, -3.725192886682784e-01, -2.735872749444491e+00, -7.133393526355065e-01, 3.380740525378300e+00, 2.575899257254473e+00, 2.227416390886707e+00, -1.872455680302163e+00, 6.588153742188022e+00, -2.177460339308491e+00, -4.511965531945583e+00, 3.262960691162545e+00, 7.295655748040738e-01, 1.092096408392684e+00, 5.284872697284073e-01, -4.293883526997126e-01, -2.711255678976523e+00, -4.726065994057241e-01, -2.324560215947555e-01, -3.113609596115681e+00, -1.333161034093621e+00, -4.969411865314390e+00, 3.117967644472106e-01, 9.323633571347596e-01, 6.206077067816964e-01, -1.254115259706298e-02, 6.082931663068872e-01, -8.347343803707902e-01, -1.243155215589960e+00, -5.513248794245189e-01, 1.084767086545743e+00, 7.312622182062437e-01, 1.420924302481395e+00, -7.565688841457653e-01, 7.668975532564031e-01, 6.003915534992356e-01, -9.660804021579156e-01, -5.206396734689481e-01, -1.065452587930641e+00, 2.997704818838899e+00, -2.108702763238511e-01, -7.304341469390676e-01, 2.647005151856995e-01, 3.126461632189705e-01, 2.333586381308063e-01, 3.531838716297552e-01, 1.322734437008621e+00, 3.776887143594791e-01, 2.481655507259422e-01, 5.051377945743368e-01, 6.475715745240946e-01, -2.985865961486227e+00, -5.693443444217656e+00, -2.664407439098008e+00, 1.487823441956828e+00, 2.481012871980719e+00, 3.398087816682937e-01, -3.039466644523066e+00, 6.473156162379706e-01, 1.938642926300025e+00, -5.500052491082039e-01, 9.645481283657537e-01, 1.159313500444989e-01, 5.056808557002969e-01, 2.227944136656209e+00, -1.225563911268430e+00, -1.056128613080942e+01, 4.899716214217265e+00, 1.094940036688506e-01, 7.116349603297014e-01, 1.346328690530694e+00, 3.590160105354260e-01, -2.400409589962647e+00, 2.991927252357929e+00, 9.294705328530966e-01, -3.973769497226088e-01, -3.608134993779684e+00, -4.250799504528879e-01, 1.178591043872565e+00, 1.511973554437452e+00, 5.210014562776362e-01, 2.541495761328434e+00, 7.589308945375483e-01, 2.751559065719228e+00, -7.266829056969678e+00, -6.308122011433720e-01, 7.338304256600487e-01, -2.030844584944178e+00, -1.663411758066992e+00, 2.494616943369921e+00, 9.338171155276235e-01, 4.231725974774570e-01, 2.006065799603948e+00, -1.489051145803776e+00, -2.321237432941999e+00, 3.677372629061084e+00, 2.950804514781000e+00, -1.588594362591925e+00, 2.422994935560963e+00, -3.309615015211761e+00, -3.798563219853750e-01, -3.761997781145762e+00, 4.592239058510748e+00, 1.400947893754351e+00, -1.298155399004912e+00, 4.611790575459606e-01, 1.594431866682729e-01, 1.288664744704823e+00, -9.520312363432855e-01, 3.796518075626994e+00, 2.096020401871729e+00, -9.857995586178592e-02, -2.547611423174738e+00, -1.347370711758537e+00, 2.260468855958830e+00, -7.829451607468666e-01, -7.184405308195088e-01, 7.960474337653524e-01, 3.042904230240326e+00, 2.293832763473541e-01, 2.287056067470889e-01, -7.615655373614798e-01, 7.981263686490639e-01, 2.323103742574093e+00, 9.696473127999088e-01, -2.755827296485214e-01, -9.138639148792095e-01, 1.609470883796749e-01, -5.777517923086708e-01, -2.082434291566676e+00, -2.411569233469872e+00, -1.030688777722472e+00, -3.209161373428210e-01, 1.218066023168749e+00, -3.763078558421233e-01, 3.682512458958110e-01, 9.971919742853725e-01, 1.549374961871864e+00, 5.150571509585888e-01, 1.227487529797702e+01, -1.117797193492638e-02, -3.082404274310363e-02, -1.470849990222354e+00, -9.118583720798155e-01, -6.715112909215028e+00, -3.276277496260502e-01, 2.953526681104597e+00, -2.148340903467175e+00, 5.711000673512841e+00, -6.805455844682954e-01, 3.407240481039235e-01, -8.866544602254985e-01, -8.438469919230256e-01, 2.009951798044408e-01, -3.118433658063154e-01, 5.142844171695518e-01}